<?xml version="1.0"?>
<opencv_storage>
<stage10>
  <maxWeakCount>6</maxWeakCount>
  <stageThreshold>-1.6672912836074829e+00</stageThreshold>
  <weakClassifiers>
    <_>
      <internalNodes>
        0 -1 218355 -1.1189281009137630e-02</internalNodes>
      <leafValues>
        6.0380953550338745e-01 -5.7079887390136719e-01</leafValues></_>
    <_>
      <internalNodes>
        0 -1 218294 8.9949946850538254e-03</internalNodes>
      <leafValues>
        -4.2027625441551208e-01 6.1930835247039795e-01</leafValues></_>
    <_>
      <internalNodes>
        0 -1 127944 8.7423319928348064e-04</internalNodes>
      <leafValues>
        2.3243151605129242e-01 -8.1958025693893433e-01</leafValues></_>
    <_>
      <internalNodes>
        0 -1 58323 -3.4024156630039215e-03</internalNodes>
      <leafValues>
        6.7867237329483032e-01 -2.8978776931762695e-01</leafValues></_>
    <_>
      <internalNodes>
        0 -1 181709 3.6714415182359517e-04</internalNodes>
      <leafValues>
        2.7929997444152832e-01 -8.4113335609436035e-01</leafValues></_>
    <_>
      <internalNodes>
        0 -1 181709 -6.2951794825494289e-04</internalNodes>
      <leafValues>
        -9.8177605867385864e-01 1.5385192632675171e-01</leafValues></_></weakClassifiers></stage10>
</opencv_storage>
