<?xml version="1.0"?>
<opencv_storage>
<cascade>
  <stageType>BOOST</stageType>
  <featureType>LBP</featureType>
  <height>24</height>
  <width>24</width>
  <stageParams>
    <boostType>GAB</boostType>
    <minHitRate>9.9500000476837158e-01</minHitRate>
    <maxFalseAlarm>5.0000000000000000e-01</maxFalseAlarm>
    <weightTrimRate>9.4999999999999996e-01</weightTrimRate>
    <maxDepth>1</maxDepth>
    <maxWeakCount>100</maxWeakCount></stageParams>
  <featureParams>
    <maxCatCount>256</maxCatCount>
    <featSize>1</featSize></featureParams>
  <stageNum>7</stageNum>
  <stages>
    <!-- stage 0 -->
    <_>
      <maxWeakCount>2</maxWeakCount>
      <stageThreshold>-2.2085121273994446e-01</stageThreshold>
      <weakClassifiers>
        <_>
          <internalNodes>
            0 -1 11 -3 -2098721 -149694465 -10785 -1 -2359573 -1310721
            -1</internalNodes>
          <leafValues>
            -9.8380386829376221e-01 7.9952830076217651e-01</leafValues></_>
        <_>
          <internalNodes>
            0 -1 4 -1 -5121 -77596198 -1025 -6553601 -4473925 -71566337
            -1</internalNodes>
          <leafValues>
            -9.8970973491668701e-01 7.6295268535614014e-01</leafValues></_></weakClassifiers></_>
    <!-- stage 1 -->
    <_>
      <maxWeakCount>2</maxWeakCount>
      <stageThreshold>-5.7678437232971191e-01</stageThreshold>
      <weakClassifiers>
        <_>
          <internalNodes>
            0 -1 17 -2097153 -750265713 -2147252149 -1970560373
            -208931925 394379659 -703858005 81787903</internalNodes>
          <leafValues>
            -9.8794621229171753e-01 4.0344515442848206e-01</leafValues></_>
        <_>
          <internalNodes>
            0 -1 5 -269484033 -14953639 -1690053877 -15215849 1132592127
            -82075638 1199833083 -536871985</internalNodes>
          <leafValues>
            -9.8022955656051636e-01 5.8466637134552002e-01</leafValues></_></weakClassifiers></_>
    <!-- stage 2 -->
    <_>
      <maxWeakCount>3</maxWeakCount>
      <stageThreshold>-1.3670194149017334e+00</stageThreshold>
      <weakClassifiers>
        <_>
          <internalNodes>
            0 -1 14 -134742017 -74341401 -788136961 -539504293 -5243905
            -72635750 1610604029 -1025</internalNodes>
          <leafValues>
            -9.8061388731002808e-01 3.9852398633956909e-01</leafValues></_>
        <_>
          <internalNodes>
            0 -1 8 -673185793 -306209 -1713905665 -32769 -95749121
            -5568088 -1074790401 -1073796438</internalNodes>
          <leafValues>
            -9.4321691989898682e-01 4.9499723315238953e-01</leafValues></_>
        <_>
          <internalNodes>
            0 -1 0 -69740033 -33565733 -1655574017 -665121 -912672513
            -5600854 -1417356801 273768213</internalNodes>
          <leafValues>
            -9.7001594305038452e-01 5.5681133270263672e-01</leafValues></_></weakClassifiers></_>
    <!-- stage 3 -->
    <_>
      <maxWeakCount>3</maxWeakCount>
      <stageThreshold>-1.3038194179534912e+00</stageThreshold>
      <weakClassifiers>
        <_>
          <internalNodes>
            0 -1 13 -68157441 -1065985 -1822426113 -2305 -1296056329
            -224136201 -67372033 -1048577</internalNodes>
          <leafValues>
            -9.7216612100601196e-01 5.3430354595184326e-01</leafValues></_>
        <_>
          <internalNodes>
            0 -1 2 -8193 -218139681 -538995233 -32801 -69214273
            -251690501 -1315905 -1</internalNodes>
          <leafValues>
            -8.8303387165069580e-01 5.9293371438980103e-01</leafValues></_>
        <_>
          <internalNodes>
            0 -1 12 -536871041 2139083135 -773980161 2080373631
            -937441030 1774174959 -359670530 -79953953</internalNodes>
          <leafValues>
            -8.8556784391403198e-01 5.5138057470321655e-01</leafValues></_></weakClassifiers></_>
    <!-- stage 4 -->
    <_>
      <maxWeakCount>3</maxWeakCount>
      <stageThreshold>-1.4339872598648071e+00</stageThreshold>
      <weakClassifiers>
        <_>
          <internalNodes>
            0 -1 9 -2113537 -201345537 -238750241 -38030919 -71126017
            -68168961 -72893441 -16389</internalNodes>
          <leafValues>
            -9.3073594570159912e-01 2.6070037484169006e-01</leafValues></_>
        <_>
          <internalNodes>
            0 -1 16 -1107296257 -33563785 -543951361 -140833 -1073742849
            -1077956641 -1074790913 939523823</internalNodes>
          <leafValues>
            -9.3739843368530273e-01 4.2461499571800232e-01</leafValues></_>
        <_>
          <internalNodes>
            0 -1 15 -539492353 -7387425 -13371905 -2237489 -1145307137
            -74714453 905926141 -1</internalNodes>
          <leafValues>
            -9.2786633968353271e-01 5.2511513233184814e-01</leafValues></_></weakClassifiers></_>
    <!-- stage 5 -->
    <_>
      <maxWeakCount>3</maxWeakCount>
      <stageThreshold>-1.3404066562652588e+00</stageThreshold>
      <weakClassifiers>
        <_>
          <internalNodes>
            0 -1 1 -2097153 -69733457 -799286817 -2097253 -748684289
            -775187645 -138414349 -134217857</internalNodes>
          <leafValues>
            -8.7621051073074341e-01 5.1724135875701904e-01</leafValues></_>
        <_>
          <internalNodes>
            0 -1 7 -637550593 -136728577 -1005267497 -1210728489
            -36193025 -33882117 -70796545 -1073758209</internalNodes>
          <leafValues>
            -9.0256679058074951e-01 4.9389034509658813e-01</leafValues></_>
        <_>
          <internalNodes>
            0 -1 3 -2097281 -165889 -242626593 -1074037793 -141067401
            2142968703 -7864385 1073709055</internalNodes>
          <leafValues>
            -9.1538530588150024e-01 4.3837064504623413e-01</leafValues></_></weakClassifiers></_>
    <!-- stage 6 -->
    <_>
      <maxWeakCount>3</maxWeakCount>
      <stageThreshold>-1.3603621721267700e+00</stageThreshold>
      <weakClassifiers>
        <_>
          <internalNodes>
            0 -1 10 -1 -34087969 532723509 -397040 -121963521 -72843058
            -7995597 -67634639</internalNodes>
          <leafValues>
            -8.8978433609008789e-01 3.2445520162582397e-01</leafValues></_>
        <_>
          <internalNodes>
            0 -1 6 -178268161 -102771745 1966034935 1932720639
            -772952337 -70403361 -24120353 -67108865</internalNodes>
          <leafValues>
            -8.6450099945068359e-01 4.9885812401771545e-01</leafValues></_>
        <_>
          <internalNodes>
            0 -1 18 -1342229573 -1889991934 17367056 323732224
            -206851190 58728840 1938813610 -205520902</internalNodes>
          <leafValues>
            -8.2031643390655518e-01 5.3958910703659058e-01</leafValues></_></weakClassifiers></_></stages>
  <features>
    <_>
      <rect>
        0 0 8 2</rect></_>
    <_>
      <rect>
        0 1 2 5</rect></_>
    <_>
      <rect>
        0 7 4 3</rect></_>
    <_>
      <rect>
        0 15 4 3</rect></_>
    <_>
      <rect>
        2 8 7 5</rect></_>
    <_>
      <rect>
        3 3 3 3</rect></_>
    <_>
      <rect>
        3 11 4 4</rect></_>
    <_>
      <rect>
        6 0 4 4</rect></_>
    <_>
      <rect>
        6 15 4 3</rect></_>
    <_>
      <rect>
        7 1 3 3</rect></_>
    <_>
      <rect>
        7 7 3 2</rect></_>
    <_>
      <rect>
        8 2 5 6</rect></_>
    <_>
      <rect>
        12 3 3 2</rect></_>
    <_>
      <rect>
        12 6 4 4</rect></_>
    <_>
      <rect>
        12 12 3 3</rect></_>
    <_>
      <rect>
        12 13 3 3</rect></_>
    <_>
      <rect>
        12 15 4 3</rect></_>
    <_>
      <rect>
        18 0 2 8</rect></_>
    <_>
      <rect>
        19 12 1 3</rect></_></features></cascade>
</opencv_storage>
