<?xml version="1.0"?>
<opencv_storage>
<stage2>
  <maxWeakCount>5</maxWeakCount>
  <stageThreshold>-9.5571982860565186e-01</stageThreshold>
  <weakClassifiers>
    <_>
      <internalNodes>
        0 -1 130938 -1.4010298065841198e-02</internalNodes>
      <leafValues>
        7.5631177425384521e-01 -5.6092208623886108e-01</leafValues></_>
    <_>
      <internalNodes>
        0 -1 15706 -3.0504213646054268e-03</internalNodes>
      <leafValues>
        6.0775959491729736e-01 -5.0651121139526367e-01</leafValues></_>
    <_>
      <internalNodes>
        0 -1 108266 -2.1189630497246981e-03</internalNodes>
      <leafValues>
        6.5231859683990479e-01 -4.1111260652542114e-01</leafValues></_>
    <_>
      <internalNodes>
        0 -1 178614 3.2956013455986977e-04</internalNodes>
      <leafValues>
        4.3079572916030884e-01 -7.4877750873565674e-01</leafValues></_>
    <_>
      <internalNodes>
        0 -1 41768 4.9345210194587708e-02</internalNodes>
      <leafValues>
        2.0817235112190247e-01 -9.7632747888565063e-01</leafValues></_></weakClassifiers></stage2>
</opencv_storage>
