<?xml version="1.0"?>
<opencv_storage>
<stage1>
  <maxWeakCount>6</maxWeakCount>
  <stageThreshold>-1.5690144300460815e+00</stageThreshold>
  <weakClassifiers>
    <_>
      <internalNodes>
        0 -1 101382 -6.7269839346408844e-03</internalNodes>
      <leafValues>
        4.6056339144706726e-01 -6.4082932472229004e-01</leafValues></_>
    <_>
      <internalNodes>
        0 -1 172911 1.7949126195162535e-03</internalNodes>
      <leafValues>
        -6.1092662811279297e-01 4.2814496159553528e-01</leafValues></_>
    <_>
      <internalNodes>
        0 -1 117610 -2.6758898049592972e-02</internalNodes>
      <leafValues>
        6.9262510538101196e-01 -4.1959324479103088e-01</leafValues></_>
    <_>
      <internalNodes>
        0 -1 159056 4.4078254722990096e-04</internalNodes>
      <leafValues>
        3.7692597508430481e-01 -8.1729060411453247e-01</leafValues></_>
    <_>
      <internalNodes>
        0 -1 87783 1.1200414970517159e-02</internalNodes>
      <leafValues>
        -6.7043733596801758e-01 3.8091513514518738e-01</leafValues></_>
    <_>
      <internalNodes>
        0 -1 131055 -1.8273037858307362e-03</internalNodes>
      <leafValues>
        3.9584609866142273e-01 -5.8388876914978027e-01</leafValues></_></weakClassifiers></stage1>
</opencv_storage>
