<?xml version="1.0"?>
<opencv_storage>
<stage8>
  <maxWeakCount>8</maxWeakCount>
  <stageThreshold>-1.1317789554595947e+00</stageThreshold>
  <weakClassifiers>
    <_>
      <internalNodes>
        0 -1 114079 3.7387418560683727e-03</internalNodes>
      <leafValues>
        -5.9904247522354126e-01 4.9146449565887451e-01</leafValues></_>
    <_>
      <internalNodes>
        0 -1 56360 -6.2467120587825775e-03</internalNodes>
      <leafValues>
        3.4349736571311951e-01 -6.5087950229644775e-01</leafValues></_>
    <_>
      <internalNodes>
        0 -1 45969 -2.5478741008555517e-05</internalNodes>
      <leafValues>
        2.7485275268554688e-01 -5.9428966045379639e-01</leafValues></_>
    <_>
      <internalNodes>
        0 -1 151939 1.7045382410287857e-03</internalNodes>
      <leafValues>
        -7.2543239593505859e-01 2.8289365768432617e-01</leafValues></_>
    <_>
      <internalNodes>
        0 -1 173657 1.6174502670764923e-02</internalNodes>
      <leafValues>
        -3.9939147233963013e-01 4.9965471029281616e-01</leafValues></_>
    <_>
      <internalNodes>
        0 -1 213819 8.2647835370153189e-05</internalNodes>
      <leafValues>
        -4.1916173696517944e-01 4.4586229324340820e-01</leafValues></_>
    <_>
      <internalNodes>
        0 -1 216096 2.8462786227464676e-02</internalNodes>
      <leafValues>
        -2.2432005405426025e-01 8.5010218620300293e-01</leafValues></_>
    <_>
      <internalNodes>
        0 -1 104598 -3.7331939674913883e-03</internalNodes>
      <leafValues>
        7.5603216886520386e-01 -2.4780502915382385e-01</leafValues></_></weakClassifiers></stage8>
</opencv_storage>
