<?xml version="1.0"?>
<opencv_storage>
<stage5>
  <maxWeakCount>6</maxWeakCount>
  <stageThreshold>-1.3484131097793579e+00</stageThreshold>
  <weakClassifiers>
    <_>
      <internalNodes>
        0 -1 98550 1.6163815744221210e-03</internalNodes>
      <leafValues>
        -6.9090187549591064e-01 1.8842001259326935e-01</leafValues></_>
    <_>
      <internalNodes>
        0 -1 128669 -2.0497634541243315e-03</internalNodes>
      <leafValues>
        -9.6430528163909912e-01 1.4255623519420624e-01</leafValues></_>
    <_>
      <internalNodes>
        0 -1 128751 1.7390430439263582e-03</internalNodes>
      <leafValues>
        -4.4560557603836060e-01 4.5395061373710632e-01</leafValues></_>
    <_>
      <internalNodes>
        0 -1 82820 -2.3654093965888023e-02</internalNodes>
      <leafValues>
        7.9765963554382324e-01 -2.5939092040061951e-01</leafValues></_>
    <_>
      <internalNodes>
        0 -1 22054 8.8175181299448013e-03</internalNodes>
      <leafValues>
        -4.0601104497909546e-01 5.0938183069229126e-01</leafValues></_>
    <_>
      <internalNodes>
        0 -1 152406 -1.5316492863348685e-05</internalNodes>
      <leafValues>
        3.4365850687026978e-01 -6.0445272922515869e-01</leafValues></_></weakClassifiers></stage5>
</opencv_storage>
