<?xml version="1.0"?>
<opencv_storage>
<stage0>
  <maxWeakCount>5</maxWeakCount>
  <stageThreshold>-1.2072740793228149e+00</stageThreshold>
  <weakClassifiers>
    <_>
      <internalNodes>
        0 -1 172911 2.2441705223172903e-03</internalNodes>
      <leafValues>
        -7.5759935379028320e-01 2.5886711478233337e-01</leafValues></_>
    <_>
      <internalNodes>
        0 -1 117621 -2.9099216684699059e-02</internalNodes>
      <leafValues>
        6.1649632453918457e-01 -4.7150647640228271e-01</leafValues></_>
    <_>
      <internalNodes>
        0 -1 87774 1.0049093514680862e-02</internalNodes>
      <leafValues>
        -6.9390809535980225e-01 4.6936926245689392e-01</leafValues></_>
    <_>
      <internalNodes>
        0 -1 10647 -1.1545900255441666e-02</internalNodes>
      <leafValues>
        4.3354466557502747e-01 -6.5002053976058960e-01</leafValues></_>
    <_>
      <internalNodes>
        0 -1 178362 4.0996586903929710e-03</internalNodes>
      <leafValues>
        2.8219515085220337e-01 -9.4373726844787598e-01</leafValues></_></weakClassifiers></stage0>
</opencv_storage>
