<?xml version="1.0"?>
<opencv_storage>
<stage11>
  <maxWeakCount>9</maxWeakCount>
  <stageThreshold>-1.3806545734405518e+00</stageThreshold>
  <weakClassifiers>
    <_>
      <internalNodes>
        0 -1 210652 -1.3708758354187012e-01</internalNodes>
      <leafValues>
        5.8662611246109009e-01 -4.8485645651817322e-01</leafValues></_>
    <_>
      <internalNodes>
        0 -1 103154 2.7931248769164085e-03</internalNodes>
      <leafValues>
        -4.7399294376373291e-01 4.0631952881813049e-01</leafValues></_>
    <_>
      <internalNodes>
        0 -1 152406 -4.7707777412142605e-05</internalNodes>
      <leafValues>
        2.4819982051849365e-01 -6.7859286069869995e-01</leafValues></_>
    <_>
      <internalNodes>
        0 -1 213835 -5.1304162479937077e-04</internalNodes>
      <leafValues>
        -8.7508082389831543e-01 2.1602420508861542e-01</leafValues></_>
    <_>
      <internalNodes>
        0 -1 85344 1.9990117289125919e-03</internalNodes>
      <leafValues>
        -2.9037311673164368e-01 6.9528311491012573e-01</leafValues></_>
    <_>
      <internalNodes>
        0 -1 85332 -9.3970401212573051e-04</internalNodes>
      <leafValues>
        5.8345425128936768e-01 -2.8340089321136475e-01</leafValues></_>
    <_>
      <internalNodes>
        0 -1 218353 -8.7151350453495979e-03</internalNodes>
      <leafValues>
        8.7266629934310913e-01 -1.6162136197090149e-01</leafValues></_>
    <_>
      <internalNodes>
        0 -1 27105 -2.3507449030876160e-01</internalNodes>
      <leafValues>
        5.5386209487915039e-01 -3.3633181452751160e-01</leafValues></_>
    <_>
      <internalNodes>
        0 -1 157848 -7.5838679913431406e-04</internalNodes>
      <leafValues>
        -9.4093382358551025e-01 1.8569792807102203e-01</leafValues></_></weakClassifiers></stage11>
</opencv_storage>
