<?xml version="1.0"?>
<opencv_storage>
<stage7>
  <maxWeakCount>5</maxWeakCount>
  <stageThreshold>-1.6089870929718018e+00</stageThreshold>
  <weakClassifiers>
    <_>
      <internalNodes>
        0 -1 989980 9.6570542082190514e-03</internalNodes>
      <leafValues>
        -7.5263953208923340e-01 7.2262775897979736e-01</leafValues></_>
    <_>
      <internalNodes>
        0 -1 310555 8.6322343122446910e-06</internalNodes>
      <leafValues>
        -8.8064306974411011e-01 4.3945929408073425e-01</leafValues></_>
    <_>
      <internalNodes>
        0 -1 1117897 2.4585020728409290e-03</internalNodes>
      <leafValues>
        -7.0179164409637451e-01 5.0753331184387207e-01</leafValues></_>
    <_>
      <internalNodes>
        0 -1 407479 7.1645644493401051e-04</internalNodes>
      <leafValues>
        -9.1154432296752930e-01 4.0526217222213745e-01</leafValues></_>
    <_>
      <internalNodes>
        0 -1 1045993 -6.5566897392272949e-03</internalNodes>
      <leafValues>
        3.2082492113113403e-01 -1.</leafValues></_></weakClassifiers></stage7>
</opencv_storage>
