<?xml version="1.0"?>
<opencv_storage>
<cascade>
  <stageType>BOOST</stageType>
  <featureType>HAAR</featureType>
  <height>24</height>
  <width>24</width>
  <stageParams>
    <boostType>GAB</boostType>
    <minHitRate>9.9500000476837158e-01</minHitRate>
    <maxFalseAlarm>5.0000000000000000e-01</maxFalseAlarm>
    <weightTrimRate>9.4999999999999996e-01</weightTrimRate>
    <maxDepth>1</maxDepth>
    <maxWeakCount>100</maxWeakCount></stageParams>
  <featureParams>
    <maxCatCount>0</maxCatCount>
    <featSize>1</featSize>
    <mode>ALL</mode></featureParams>
  <stageNum>6</stageNum>
  <stages>
    <!-- stage 0 -->
    <_>
      <maxWeakCount>1</maxWeakCount>
      <stageThreshold>9.5361286401748657e-01</stageThreshold>
      <weakClassifiers>
        <_>
          <internalNodes>
            0 -1 1 -1.2293450832366943e+00</internalNodes>
          <leafValues>
            9.5361286401748657e-01 -9.9782419204711914e-01</leafValues></_></weakClassifiers></_>
    <!-- stage 1 -->
    <_>
      <maxWeakCount>3</maxWeakCount>
      <stageThreshold>-1.3057513236999512e+00</stageThreshold>
      <weakClassifiers>
        <_>
          <internalNodes>
            0 -1 4 6.2799796462059021e-02</internalNodes>
          <leafValues>
            -9.2153519392013550e-01 7.8383642435073853e-01</leafValues></_>
        <_>
          <internalNodes>
            0 -1 15 -3.6704890429973602e-02</internalNodes>
          <leafValues>
            7.2812849283218384e-01 -9.0749114751815796e-01</leafValues></_>
        <_>
          <internalNodes>
            0 -1 13 5.5935129523277283e-02</internalNodes>
          <leafValues>
            -9.6492344141006470e-01 5.2327495813369751e-01</leafValues></_></weakClassifiers></_>
    <!-- stage 2 -->
    <_>
      <maxWeakCount>3</maxWeakCount>
      <stageThreshold>-1.0886714458465576e+00</stageThreshold>
      <weakClassifiers>
        <_>
          <internalNodes>
            0 -1 3 -8.0025546252727509e-02</internalNodes>
          <leafValues>
            7.3975408077239990e-01 -8.9411514997482300e-01</leafValues></_>
        <_>
          <internalNodes>
            0 -1 14 5.7204112410545349e-02</internalNodes>
          <leafValues>
            -8.4555679559707642e-01 7.1223241090774536e-01</leafValues></_>
        <_>
          <internalNodes>
            0 -1 12 4.1125183925032616e-03</internalNodes>
          <leafValues>
            -8.2971215248107910e-01 6.5100044012069702e-01</leafValues></_></weakClassifiers></_>
    <!-- stage 3 -->
    <_>
      <maxWeakCount>3</maxWeakCount>
      <stageThreshold>-1.1366955041885376e+00</stageThreshold>
      <weakClassifiers>
        <_>
          <internalNodes>
            0 -1 6 7.2530105710029602e-02</internalNodes>
          <leafValues>
            -8.8590747117996216e-01 6.8699187040328979e-01</leafValues></_>
        <_>
          <internalNodes>
            0 -1 10 -4.7073133289813995e-02</internalNodes>
          <leafValues>
            5.4154813289642334e-01 -8.4958899021148682e-01</leafValues></_>
        <_>
          <internalNodes>
            0 -1 2 1.9603310152888298e-02</internalNodes>
          <leafValues>
            -7.9233622550964355e-01 6.2622559070587158e-01</leafValues></_></weakClassifiers></_>
    <!-- stage 4 -->
    <_>
      <maxWeakCount>3</maxWeakCount>
      <stageThreshold>-1.3343119621276855e+00</stageThreshold>
      <weakClassifiers>
        <_>
          <internalNodes>
            0 -1 8 -5.3867235779762268e-02</internalNodes>
          <leafValues>
            5.7601714134216309e-01 -8.4779429435729980e-01</leafValues></_>
        <_>
          <internalNodes>
            0 -1 16 -5.8907605707645416e-03</internalNodes>
          <leafValues>
            4.1310596466064453e-01 -8.7080132961273193e-01</leafValues></_>
        <_>
          <internalNodes>
            0 -1 9 -1.2653811136260629e-03</internalNodes>
          <leafValues>
            -8.9962363243103027e-01 4.3956756591796875e-01</leafValues></_></weakClassifiers></_>
    <!-- stage 5 -->
    <_>
      <maxWeakCount>5</maxWeakCount>
      <stageThreshold>-1.5764920711517334e+00</stageThreshold>
      <weakClassifiers>
        <_>
          <internalNodes>
            0 -1 5 -2.8505485504865646e-02</internalNodes>
          <leafValues>
            7.1580344438552856e-01 -8.1708300113677979e-01</leafValues></_>
        <_>
          <internalNodes>
            0 -1 7 -3.6836344003677368e-01</internalNodes>
          <leafValues>
            6.1596602201461792e-01 -7.1974909305572510e-01</leafValues></_>
        <_>
          <internalNodes>
            0 -1 0 -3.9352653548121452e-03</internalNodes>
          <leafValues>
            3.4388038516044617e-01 -9.6930849552154541e-01</leafValues></_>
        <_>
          <internalNodes>
            0 -1 11 -1.1296774027869105e-03</internalNodes>
          <leafValues>
            4.1076365113258362e-01 -7.5183206796646118e-01</leafValues></_>
        <_>
          <internalNodes>
            0 -1 17 -1.5666162653360516e-04</internalNodes>
          <leafValues>
            -9.6013247966766357e-01 3.6829170584678650e-01</leafValues></_></weakClassifiers></_></stages>
  <features>
    <_>
      <rects>
        <_>
          0 14 24 9 -1.</_>
        <_>
          12 14 12 9 2.</_></rects>
      <tilted>0</tilted></_>
    <_>
      <rects>
        <_>
          2 0 21 24 -1.</_>
        <_>
          9 8 7 8 9.</_></rects>
      <tilted>0</tilted></_>
    <_>
      <rects>
        <_>
          2 0 20 4 -1.</_>
        <_>
          2 2 20 2 2.</_></rects>
      <tilted>0</tilted></_>
    <_>
      <rects>
        <_>
          3 7 6 10 -1.</_>
        <_>
          6 7 3 10 2.</_></rects>
      <tilted>0</tilted></_>
    <_>
      <rects>
        <_>
          6 11 7 6 -1.</_>
        <_>
          4 13 7 2 3.</_></rects>
      <tilted>1</tilted></_>
    <_>
      <rects>
        <_>
          6 13 7 2 -1.</_>
        <_>
          6 13 7 1 2.</_></rects>
      <tilted>1</tilted></_>
    <_>
      <rects>
        <_>
          7 0 6 7 -1.</_>
        <_>
          9 2 2 7 3.</_></rects>
      <tilted>1</tilted></_>
    <_>
      <rects>
        <_>
          8 1 16 7 -1.</_>
        <_>
          12 5 8 7 2.</_></rects>
      <tilted>1</tilted></_>
    <_>
      <rects>
        <_>
          9 3 6 6 -1.</_>
        <_>
          11 5 2 6 3.</_></rects>
      <tilted>1</tilted></_>
    <_>
      <rects>
        <_>
          9 11 8 3 -1.</_>
        <_>
          11 11 4 3 2.</_></rects>
      <tilted>0</tilted></_>
    <_>
      <rects>
        <_>
          9 12 9 9 -1.</_>
        <_>
          9 15 9 3 3.</_></rects>
      <tilted>0</tilted></_>
    <_>
      <rects>
        <_>
          10 8 10 2 -1.</_>
        <_>
          10 8 5 1 2.</_>
        <_>
          15 9 5 1 2.</_></rects>
      <tilted>0</tilted></_>
    <_>
      <rects>
        <_>
          10 14 10 4 -1.</_>
        <_>
          10 14 5 2 2.</_>
        <_>
          15 16 5 2 2.</_></rects>
      <tilted>0</tilted></_>
    <_>
      <rects>
        <_>
          11 0 12 10 -1.</_>
        <_>
          11 0 6 5 2.</_>
        <_>
          17 5 6 5 2.</_></rects>
      <tilted>0</tilted></_>
    <_>
      <rects>
        <_>
          16 7 8 11 -1.</_>
        <_>
          18 7 4 11 2.</_></rects>
      <tilted>0</tilted></_>
    <_>
      <rects>
        <_>
          16 11 6 12 -1.</_>
        <_>
          16 11 3 6 2.</_>
        <_>
          19 17 3 6 2.</_></rects>
      <tilted>0</tilted></_>
    <_>
      <rects>
        <_>
          20 11 4 5 -1.</_>
        <_>
          22 11 2 5 2.</_></rects>
      <tilted>0</tilted></_>
    <_>
      <rects>
        <_>
          21 0 1 16 -1.</_>
        <_>
          21 8 1 8 2.</_></rects>
      <tilted>0</tilted></_></features></cascade>
</opencv_storage>
