<?xml version="1.0"?>
<opencv_storage>
<stage5>
  <maxWeakCount>6</maxWeakCount>
  <stageThreshold>-1.1431834697723389e+00</stageThreshold>
  <weakClassifiers>
    <_>
      <internalNodes>
        0 -1 211185 -1.8619941547513008e-02</internalNodes>
      <leafValues>
        4.4054359197616577e-01 -6.5525674819946289e-01</leafValues></_>
    <_>
      <internalNodes>
        0 -1 161807 2.6722527109086514e-03</internalNodes>
      <leafValues>
        -7.9369288682937622e-01 2.6306766271591187e-01</leafValues></_>
    <_>
      <internalNodes>
        0 -1 41539 -7.8742541372776031e-02</internalNodes>
      <leafValues>
        6.8272417783737183e-01 -3.3924937248229980e-01</leafValues></_>
    <_>
      <internalNodes>
        0 -1 22054 8.7811946868896484e-03</internalNodes>
      <leafValues>
        -4.9320176243782043e-01 5.1368683576583862e-01</leafValues></_>
    <_>
      <internalNodes>
        0 -1 161 8.9367814362049103e-03</internalNodes>
      <leafValues>
        -4.9241048097610474e-01 4.5557257533073425e-01</leafValues></_>
    <_>
      <internalNodes>
        0 -1 217655 7.4389576911926270e-03</internalNodes>
      <leafValues>
        -3.2424384355545044e-01 6.8118351697921753e-01</leafValues></_></weakClassifiers></stage5>
</opencv_storage>
