<?xml version="1.0"?>
<opencv_storage>
<cascade>
  <stageType>BOOST</stageType>
  <featureType>HAAR</featureType>
  <height>36</height>
  <width>33</width>
  <stageParams>
    <boostType>GAB</boostType>
    <minHitRate>9.9500000476837158e-01</minHitRate>
    <maxFalseAlarm>5.0000000000000000e-01</maxFalseAlarm>
    <weightTrimRate>9.4999999999999996e-01</weightTrimRate>
    <maxDepth>1</maxDepth>
    <maxWeakCount>100</maxWeakCount></stageParams>
  <featureParams>
    <maxCatCount>0</maxCatCount>
    <featSize>1</featSize>
    <mode>ALL</mode></featureParams>
  <stageNum>12</stageNum>
  <stages>
    <!-- stage 0 -->
    <_>
      <maxWeakCount>3</maxWeakCount>
      <stageThreshold>-1.1340736150741577e+00</stageThreshold>
      <weakClassifiers>
        <_>
          <internalNodes>
            0 -1 33 5.7057077065110207e-03</internalNodes>
          <leafValues>
            -9.4614005088806152e-01 5.2263373136520386e-01</leafValues></_>
        <_>
          <internalNodes>
            0 -1 0 -2.6600468158721924e-01</internalNodes>
          <leafValues>
            5.9261661767959595e-01 -8.4784072637557983e-01</leafValues></_>
        <_>
          <internalNodes>
            0 -1 34 2.7287581469863653e-03</internalNodes>
          <leafValues>
            -7.8055018186569214e-01 8.2353150844573975e-01</leafValues></_></weakClassifiers></_>
    <!-- stage 1 -->
    <_>
      <maxWeakCount>2</maxWeakCount>
      <stageThreshold>-3.8573807477951050e-01</stageThreshold>
      <weakClassifiers>
        <_>
          <internalNodes>
            0 -1 11 7.1371812373399734e-03</internalNodes>
          <leafValues>
            -8.3061891794204712e-01 5.9139782190322876e-01</leafValues></_>
        <_>
          <internalNodes>
            0 -1 1 -4.1058920323848724e-03</internalNodes>
          <leafValues>
            4.5568901300430298e-01 -9.7713595628738403e-01</leafValues></_></weakClassifiers></_>
    <!-- stage 2 -->
    <_>
      <maxWeakCount>3</maxWeakCount>
      <stageThreshold>-1.3161648511886597e+00</stageThreshold>
      <weakClassifiers>
        <_>
          <internalNodes>
            0 -1 20 6.2676495872437954e-03</internalNodes>
          <leafValues>
            -8.8888889551162720e-01 3.9669421315193176e-01</leafValues></_>
        <_>
          <internalNodes>
            0 -1 15 -1.4563139993697405e-03</internalNodes>
          <leafValues>
            3.6224773526191711e-01 -9.0863156318664551e-01</leafValues></_>
        <_>
          <internalNodes>
            0 -1 2 -7.3100402951240540e-03</internalNodes>
          <leafValues>
            4.9059963226318359e-01 -8.0422747135162354e-01</leafValues></_></weakClassifiers></_>
    <!-- stage 3 -->
    <_>
      <maxWeakCount>3</maxWeakCount>
      <stageThreshold>-1.3832271099090576e+00</stageThreshold>
      <weakClassifiers>
        <_>
          <internalNodes>
            0 -1 27 2.4345153942704201e-03</internalNodes>
          <leafValues>
            -8.5690516233444214e-01 5.7788944244384766e-01</leafValues></_>
        <_>
          <internalNodes>
            0 -1 30 -7.2681196033954620e-03</internalNodes>
          <leafValues>
            4.4960227608680725e-01 -9.4942325353622437e-01</leafValues></_>
        <_>
          <internalNodes>
            0 -1 31 2.0950976759195328e-03</internalNodes>
          <leafValues>
            -9.7592425346374512e-01 4.4803151488304138e-01</leafValues></_></weakClassifiers></_>
    <!-- stage 4 -->
    <_>
      <maxWeakCount>3</maxWeakCount>
      <stageThreshold>-1.4453082084655762e+00</stageThreshold>
      <weakClassifiers>
        <_>
          <internalNodes>
            0 -1 10 -1.6185356071218848e-03</internalNodes>
          <leafValues>
            3.3333334326744080e-01 -9.3893128633499146e-01</leafValues></_>
        <_>
          <internalNodes>
            0 -1 16 -2.0900433883070946e-03</internalNodes>
          <leafValues>
            3.8600364327430725e-01 -8.7174481153488159e-01</leafValues></_>
        <_>
          <internalNodes>
            0 -1 23 -1.7118118703365326e-02</internalNodes>
          <leafValues>
            3.6536791920661926e-01 -1.</leafValues></_></weakClassifiers></_>
    <!-- stage 5 -->
    <_>
      <maxWeakCount>3</maxWeakCount>
      <stageThreshold>-1.1389756202697754e+00</stageThreshold>
      <weakClassifiers>
        <_>
          <internalNodes>
            0 -1 28 8.7159927934408188e-03</internalNodes>
          <leafValues>
            -8.7197232246398926e-01 4.6846845746040344e-01</leafValues></_>
        <_>
          <internalNodes>
            0 -1 12 -1.0403038933873177e-02</internalNodes>
          <leafValues>
            6.2349051237106323e-01 -7.5839006900787354e-01</leafValues></_>
        <_>
          <internalNodes>
            0 -1 9 -4.9608256667852402e-03</internalNodes>
          <leafValues>
            4.9549835920333862e-01 -8.4905403852462769e-01</leafValues></_></weakClassifiers></_>
    <!-- stage 6 -->
    <_>
      <maxWeakCount>4</maxWeakCount>
      <stageThreshold>-1.7441486120223999e+00</stageThreshold>
      <weakClassifiers>
        <_>
          <internalNodes>
            0 -1 17 -1.1908180313184857e-03</internalNodes>
          <leafValues>
            4.3678161501884460e-01 -7.6038336753845215e-01</leafValues></_>
        <_>
          <internalNodes>
            0 -1 13 -9.2867418425157666e-04</internalNodes>
          <leafValues>
            6.1734735965728760e-01 -6.6189825534820557e-01</leafValues></_>
        <_>
          <internalNodes>
            0 -1 22 -5.8105140924453735e-03</internalNodes>
          <leafValues>
            4.0966492891311646e-01 -9.0561234951019287e-01</leafValues></_>
        <_>
          <internalNodes>
            0 -1 4 -1.7995411157608032e-01</internalNodes>
          <leafValues>
            5.0849437713623047e-01 -7.3153191804885864e-01</leafValues></_></weakClassifiers></_>
    <!-- stage 7 -->
    <_>
      <maxWeakCount>5</maxWeakCount>
      <stageThreshold>-1.6089870929718018e+00</stageThreshold>
      <weakClassifiers>
        <_>
          <internalNodes>
            0 -1 25 9.6570542082190514e-03</internalNodes>
          <leafValues>
            -7.5263953208923340e-01 7.2262775897979736e-01</leafValues></_>
        <_>
          <internalNodes>
            0 -1 7 8.6322343122446910e-06</internalNodes>
          <leafValues>
            -8.8064306974411011e-01 4.3945929408073425e-01</leafValues></_>
        <_>
          <internalNodes>
            0 -1 35 2.4585020728409290e-03</internalNodes>
          <leafValues>
            -7.0179164409637451e-01 5.0753331184387207e-01</leafValues></_>
        <_>
          <internalNodes>
            0 -1 8 7.1645644493401051e-04</internalNodes>
          <leafValues>
            -9.1154432296752930e-01 4.0526217222213745e-01</leafValues></_>
        <_>
          <internalNodes>
            0 -1 29 -6.5566897392272949e-03</internalNodes>
          <leafValues>
            3.2082492113113403e-01 -1.</leafValues></_></weakClassifiers></_>
    <!-- stage 8 -->
    <_>
      <maxWeakCount>3</maxWeakCount>
      <stageThreshold>-5.2268469333648682e-01</stageThreshold>
      <weakClassifiers>
        <_>
          <internalNodes>
            0 -1 32 -8.2482546567916870e-03</internalNodes>
          <leafValues>
            5.5974841117858887e-01 -7.6287049055099487e-01</leafValues></_>
        <_>
          <internalNodes>
            0 -1 3 -8.4936348721385002e-03</internalNodes>
          <leafValues>
            8.2496476173400879e-01 -5.7282888889312744e-01</leafValues></_>
        <_>
          <internalNodes>
            0 -1 18 6.6868491470813751e-02</internalNodes>
          <leafValues>
            -4.9419081211090088e-01 8.1301468610763550e-01</leafValues></_></weakClassifiers></_>
    <!-- stage 9 -->
    <_>
      <maxWeakCount>2</maxWeakCount>
      <stageThreshold>-7.6423126459121704e-01</stageThreshold>
      <weakClassifiers>
        <_>
          <internalNodes>
            0 -1 5 -1.4909407123923302e-02</internalNodes>
          <leafValues>
            1.6245487332344055e-01 -8.5086041688919067e-01</leafValues></_>
        <_>
          <internalNodes>
            0 -1 26 -1.5230986718961503e-05</internalNodes>
          <leafValues>
            2.9437875747680664e-01 -9.2668616771697998e-01</leafValues></_></weakClassifiers></_>
    <!-- stage 10 -->
    <_>
      <maxWeakCount>3</maxWeakCount>
      <stageThreshold>-1.4977345466613770e+00</stageThreshold>
      <weakClassifiers>
        <_>
          <internalNodes>
            0 -1 14 -3.7915380671620369e-03</internalNodes>
          <leafValues>
            2.1777777373790741e-01 -7.8086954355239868e-01</leafValues></_>
        <_>
          <internalNodes>
            0 -1 21 3.9264617953449488e-05</internalNodes>
          <leafValues>
            -9.7120714187622070e-01 2.7434891462326050e-01</leafValues></_>
        <_>
          <internalNodes>
            0 -1 6 -3.8514332845807076e-04</internalNodes>
          <leafValues>
            2.5434213876724243e-01 -9.9165463447570801e-01</leafValues></_></weakClassifiers></_>
    <!-- stage 11 -->
    <_>
      <maxWeakCount>2</maxWeakCount>
      <stageThreshold>-5.4398763179779053e-01</stageThreshold>
      <weakClassifiers>
        <_>
          <internalNodes>
            0 -1 19 -7.2300713509321213e-04</internalNodes>
          <leafValues>
            4.3624159693717957e-01 -7.1428573131561279e-01</leafValues></_>
        <_>
          <internalNodes>
            0 -1 24 2.3636224796064198e-05</internalNodes>
          <leafValues>
            -9.8022925853729248e-01 2.8253039717674255e-01</leafValues></_></weakClassifiers></_></stages>
  <features>
    <_>
      <rects>
        <_>
          0 6 28 26 -1.</_>
        <_>
          14 6 14 26 2.</_></rects>
      <tilted>0</tilted></_>
    <_>
      <rects>
        <_>
          0 34 10 2 -1.</_>
        <_>
          5 34 5 2 2.</_></rects>
      <tilted>0</tilted></_>
    <_>
      <rects>
        <_>
          1 13 10 8 -1.</_>
        <_>
          1 13 5 4 2.</_>
        <_>
          6 17 5 4 2.</_></rects>
      <tilted>0</tilted></_>
    <_>
      <rects>
        <_>
          1 22 12 1 -1.</_>
        <_>
          7 22 6 1 2.</_></rects>
      <tilted>0</tilted></_>
    <_>
      <rects>
        <_>
          2 7 26 20 -1.</_>
        <_>
          15 7 13 20 2.</_></rects>
      <tilted>0</tilted></_>
    <_>
      <rects>
        <_>
          3 6 20 2 -1.</_>
        <_>
          13 6 10 2 2.</_></rects>
      <tilted>0</tilted></_>
    <_>
      <rects>
        <_>
          4 29 1 4 -1.</_>
        <_>
          4 29 1 2 2.</_></rects>
      <tilted>1</tilted></_>
    <_>
      <rects>
        <_>
          5 34 1 2 -1.</_>
        <_>
          5 35 1 1 2.</_></rects>
      <tilted>0</tilted></_>
    <_>
      <rects>
        <_>
          7 30 6 6 -1.</_>
        <_>
          9 32 2 2 9.</_></rects>
      <tilted>0</tilted></_>
    <_>
      <rects>
        <_>
          7 32 12 4 -1.</_>
        <_>
          7 34 12 2 2.</_></rects>
      <tilted>0</tilted></_>
    <_>
      <rects>
        <_>
          9 32 3 4 -1.</_>
        <_>
          9 34 3 2 2.</_></rects>
      <tilted>0</tilted></_>
    <_>
      <rects>
        <_>
          10 14 2 10 -1.</_>
        <_>
          10 14 1 10 2.</_></rects>
      <tilted>1</tilted></_>
    <_>
      <rects>
        <_>
          11 3 10 3 -1.</_>
        <_>
          16 3 5 3 2.</_></rects>
      <tilted>0</tilted></_>
    <_>
      <rects>
        <_>
          11 22 4 3 -1.</_>
        <_>
          11 23 4 1 3.</_></rects>
      <tilted>0</tilted></_>
    <_>
      <rects>
        <_>
          12 12 3 6 -1.</_>
        <_>
          13 13 1 6 3.</_></rects>
      <tilted>1</tilted></_>
    <_>
      <rects>
        <_>
          14 21 6 6 -1.</_>
        <_>
          14 23 6 2 3.</_></rects>
      <tilted>0</tilted></_>
    <_>
      <rects>
        <_>
          14 21 8 4 -1.</_>
        <_>
          14 23 8 2 2.</_></rects>
      <tilted>0</tilted></_>
    <_>
      <rects>
        <_>
          18 1 3 2 -1.</_>
        <_>
          18 2 3 1 2.</_></rects>
      <tilted>0</tilted></_>
    <_>
      <rects>
        <_>
          19 11 14 4 -1.</_>
        <_>
          19 11 7 4 2.</_></rects>
      <tilted>1</tilted></_>
    <_>
      <rects>
        <_>
          20 1 1 2 -1.</_>
        <_>
          20 2 1 1 2.</_></rects>
      <tilted>0</tilted></_>
    <_>
      <rects>
        <_>
          20 6 8 3 -1.</_>
        <_>
          24 6 4 3 2.</_></rects>
      <tilted>0</tilted></_>
    <_>
      <rects>
        <_>
          21 29 2 1 -1.</_>
        <_>
          21 29 1 1 2.</_></rects>
      <tilted>1</tilted></_>
    <_>
      <rects>
        <_>
          21 31 12 3 -1.</_>
        <_>
          24 31 6 3 2.</_></rects>
      <tilted>0</tilted></_>
    <_>
      <rects>
        <_>
          22 5 8 16 -1.</_>
        <_>
          22 13 8 8 2.</_></rects>
      <tilted>0</tilted></_>
    <_>
      <rects>
        <_>
          22 29 2 1 -1.</_>
        <_>
          22 29 1 1 2.</_></rects>
      <tilted>1</tilted></_>
    <_>
      <rects>
        <_>
          23 2 10 3 -1.</_>
        <_>
          22 3 10 1 3.</_></rects>
      <tilted>1</tilted></_>
    <_>
      <rects>
        <_>
          23 32 1 2 -1.</_>
        <_>
          23 33 1 1 2.</_></rects>
      <tilted>0</tilted></_>
    <_>
      <rects>
        <_>
          24 8 6 4 -1.</_>
        <_>
          24 8 3 2 2.</_>
        <_>
          27 10 3 2 2.</_></rects>
      <tilted>0</tilted></_>
    <_>
      <rects>
        <_>
          24 27 8 8 -1.</_>
        <_>
          24 27 4 4 2.</_>
        <_>
          28 31 4 4 2.</_></rects>
      <tilted>0</tilted></_>
    <_>
      <rects>
        <_>
          25 13 8 9 -1.</_>
        <_>
          27 15 4 9 2.</_></rects>
      <tilted>1</tilted></_>
    <_>
      <rects>
        <_>
          25 14 8 7 -1.</_>
        <_>
          27 16 4 7 2.</_></rects>
      <tilted>1</tilted></_>
    <_>
      <rects>
        <_>
          25 26 4 6 -1.</_>
        <_>
          25 26 2 6 2.</_></rects>
      <tilted>1</tilted></_>
    <_>
      <rects>
        <_>
          26 8 6 4 -1.</_>
        <_>
          25 9 6 2 2.</_></rects>
      <tilted>1</tilted></_>
    <_>
      <rects>
        <_>
          27 31 6 3 -1.</_>
        <_>
          30 31 3 3 2.</_></rects>
      <tilted>0</tilted></_>
    <_>
      <rects>
        <_>
          29 10 1 4 -1.</_>
        <_>
          29 10 1 2 2.</_></rects>
      <tilted>1</tilted></_>
    <_>
      <rects>
        <_>
          31 10 2 22 -1.</_>
        <_>
          31 10 1 11 2.</_>
        <_>
          32 21 1 11 2.</_></rects>
      <tilted>0</tilted></_></features></cascade>
</opencv_storage>
