<?xml version="1.0"?>
<opencv_storage>
<cascade>
  <stageType>BOOST</stageType>
  <featureType>LBP</featureType>
  <height>24</height>
  <width>24</width>
  <stageParams>
    <boostType>GAB</boostType>
    <minHitRate>9.9500000476837158e-01</minHitRate>
    <maxFalseAlarm>5.0000000000000000e-01</maxFalseAlarm>
    <weightTrimRate>9.4999999999999996e-01</weightTrimRate>
    <maxDepth>1</maxDepth>
    <maxWeakCount>100</maxWeakCount></stageParams>
  <featureParams>
    <maxCatCount>256</maxCatCount>
    <featSize>1</featSize></featureParams>
  <stageNum>6</stageNum>
  <stages>
    <!-- stage 0 -->
    <_>
      <maxWeakCount>2</maxWeakCount>
      <stageThreshold>-2.1563248336315155e-01</stageThreshold>
      <weakClassifiers>
        <_>
          <internalNodes>
            0 -1 6 -2097153 -3073 -170665473 -2130433 -2101249 -8664833
            -262145 -32769</internalNodes>
          <leafValues>
            -9.9074482917785645e-01 8.3036470413208008e-01</leafValues></_>
        <_>
          <internalNodes>
            0 -1 4 -1 -3073 -617367553 -8737 2069889023 2134899375
            -73663489 -1</internalNodes>
          <leafValues>
            -9.8023664951324463e-01 7.7511233091354370e-01</leafValues></_></weakClassifiers></_>
    <!-- stage 1 -->
    <_>
      <maxWeakCount>2</maxWeakCount>
      <stageThreshold>-3.5367360711097717e-01</stageThreshold>
      <weakClassifiers>
        <_>
          <internalNodes>
            0 -1 10 -25166593 -273449 1375990327 -540016741 -167511301
            -68705357 -84934917 -16777217</internalNodes>
          <leafValues>
            -9.9133211374282837e-01 6.2190550565719604e-01</leafValues></_>
        <_>
          <internalNodes>
            0 -1 0 -890044722 -925566778 -2109701682 -29165878
            -1051853937 -939405521 -611320853 -2097153</internalNodes>
          <leafValues>
            -9.7557908296585083e-01 6.3919925689697266e-01</leafValues></_></weakClassifiers></_>
    <!-- stage 2 -->
    <_>
      <maxWeakCount>2</maxWeakCount>
      <stageThreshold>-3.9646652340888977e-01</stageThreshold>
      <weakClassifiers>
        <_>
          <internalNodes>
            0 -1 7 -33554465 -538974013 -1983132417 -807411501
            -393246209 -374371185 -925905425 -1052953</internalNodes>
          <leafValues>
            -9.6610933542251587e-01 5.8791631460189819e-01</leafValues></_>
        <_>
          <internalNodes>
            0 -1 11 -2097153 -1078266950 -717104673 -2097697 -351671361
            -74458997 -880150017 -2102577</internalNodes>
          <leafValues>
            -9.7907942533493042e-01 5.6964284181594849e-01</leafValues></_></weakClassifiers></_>
    <!-- stage 3 -->
    <_>
      <maxWeakCount>3</maxWeakCount>
      <stageThreshold>-1.3460136651992798e+00</stageThreshold>
      <weakClassifiers>
        <_>
          <internalNodes>
            0 -1 2 -33712342 -547384419 2131877375 -2099745 -1441793
            -71591745 -74719233 -33</internalNodes>
          <leafValues>
            -9.3146276473999023e-01 3.8933527469635010e-01</leafValues></_>
        <_>
          <internalNodes>
            0 -1 13 -1048626 -146539041 -749866673 -134874217 -70257681
            -72752693 -405804081 -269485073</internalNodes>
          <leafValues>
            -9.4875168800354004e-01 5.1888841390609741e-01</leafValues></_>
        <_>
          <internalNodes>
            0 -1 5 -1245186 -1057 421520567 -394787 1544354814 -257
            -69553217 -263685</internalNodes>
          <leafValues>
            -9.3343931436538696e-01 5.9743493795394897e-01</leafValues></_></weakClassifiers></_>
    <!-- stage 4 -->
    <_>
      <maxWeakCount>3</maxWeakCount>
      <stageThreshold>-1.3302983045578003e+00</stageThreshold>
      <weakClassifiers>
        <_>
          <internalNodes>
            0 -1 2 -1040094 -155169 2105662943 -538979937 -73794561
            -292677 -1078984705 -4195841</internalNodes>
          <leafValues>
            -9.5332223176956177e-01 3.2015809416770935e-01</leafValues></_>
        <_>
          <internalNodes>
            0 -1 3 -19529729 -29697 -182714609 -1835269 -1454638081
            -357705221 -262321 -4195329</internalNodes>
          <leafValues>
            -9.2422407865524292e-01 5.0127375125885010e-01</leafValues></_>
        <_>
          <internalNodes>
            0 -1 12 -2105448 -69153 -544743595 -8227 -29623297 -5272833
            -213788715 -5123</internalNodes>
          <leafValues>
            -8.7824988365173340e-01 5.9906357526779175e-01</leafValues></_></weakClassifiers></_>
    <!-- stage 5 -->
    <_>
      <maxWeakCount>3</maxWeakCount>
      <stageThreshold>-1.3391324281692505e+00</stageThreshold>
      <weakClassifiers>
        <_>
          <internalNodes>
            0 -1 8 -105024223 -6595585 1604312541 -536881153 -538313729
            -4220677 -614469633 -4195329</internalNodes>
          <leafValues>
            -8.8794785737991333e-01 5.1438850164413452e-01</leafValues></_>
        <_>
          <internalNodes>
            0 -1 9 -33956452 -2894957 -115255297 -2400769 -77857958
            -4218117 -94709030 -16778241</internalNodes>
          <leafValues>
            -9.1574525833129883e-01 4.3621411919593811e-01</leafValues></_>
        <_>
          <internalNodes>
            0 -1 1 -1356136454 -3188226 1427504607 -9730 -1174668545
            -268721921 -35655681 -1025</internalNodes>
          <leafValues>
            -8.8739860057830811e-01 5.3135389089584351e-01</leafValues></_></weakClassifiers></_></stages>
  <features>
    <_>
      <rect>
        0 0 2 8</rect></_>
    <_>
      <rect>
        0 0 4 3</rect></_>
    <_>
      <rect>
        0 0 8 2</rect></_>
    <_>
      <rect>
        0 6 4 4</rect></_>
    <_>
      <rect>
        0 9 7 5</rect></_>
    <_>
      <rect>
        0 15 7 3</rect></_>
    <_>
      <rect>
        1 2 5 7</rect></_>
    <_>
      <rect>
        2 1 4 5</rect></_>
    <_>
      <rect>
        5 0 6 2</rect></_>
    <_>
      <rect>
        9 2 5 2</rect></_>
    <_>
      <rect>
        10 0 4 5</rect></_>
    <_>
      <rect>
        12 11 3 4</rect></_>
    <_>
      <rect>
        12 18 4 2</rect></_>
    <_>
      <rect>
        15 0 3 7</rect></_></features></cascade>
</opencv_storage>
