<?xml version="1.0"?>
<opencv_storage>
<stage11>
  <maxWeakCount>5</maxWeakCount>
  <stageThreshold>-1.3491611480712891e+00</stageThreshold>
  <weakClassifiers>
    <_>
      <internalNodes>
        0 -1 3223448 -2.4990787729620934e-02</internalNodes>
      <leafValues>
        7.2173911333084106e-01 -7.0510947704315186e-01</leafValues></_>
    <_>
      <internalNodes>
        0 -1 690637 -3.0209288001060486e-02</internalNodes>
      <leafValues>
        8.9396435022354126e-01 -6.5727722644805908e-01</leafValues></_>
    <_>
      <internalNodes>
        0 -1 2412892 1.4910183381289244e-03</internalNodes>
      <leafValues>
        -9.2342931032180786e-01 5.0092017650604248e-01</leafValues></_>
    <_>
      <internalNodes>
        0 -1 2615285 -2.1654888987541199e-03</internalNodes>
      <leafValues>
        -9.8965024948120117e-01 3.7370070815086365e-01</leafValues></_>
    <_>
      <internalNodes>
        0 -1 2264393 -1.3918054755777121e-03</internalNodes>
      <leafValues>
        5.6295412778854370e-01 -7.1743279695510864e-01</leafValues></_></weakClassifiers></stage11>
</opencv_storage>
