<?xml version="1.0"?>
<opencv_storage>
<stage5>
  <maxWeakCount>7</maxWeakCount>
  <stageThreshold>-1.2502099275588989e+00</stageThreshold>
  <weakClassifiers>
    <_>
      <internalNodes>
        0 -1 114878 1.4097990468144417e-02</internalNodes>
      <leafValues>
        -6.9880908727645874e-01 1.9654427468776703e-01</leafValues></_>
    <_>
      <internalNodes>
        0 -1 204123 -2.9271592211443931e-05</internalNodes>
      <leafValues>
        2.2794614732265472e-01 -6.5562516450881958e-01</leafValues></_>
    <_>
      <internalNodes>
        0 -1 178641 1.8270467408001423e-03</internalNodes>
      <leafValues>
        1.9130034744739532e-01 -8.4618335962295532e-01</leafValues></_>
    <_>
      <internalNodes>
        0 -1 60649 -1.3790860975859687e-05</internalNodes>
      <leafValues>
        2.7857685089111328e-01 -6.2985306978225708e-01</leafValues></_>
    <_>
      <internalNodes>
        0 -1 204904 8.8295146822929382e-02</internalNodes>
      <leafValues>
        -2.3800055682659149e-01 8.3274030685424805e-01</leafValues></_>
    <_>
      <internalNodes>
        0 -1 218192 2.1208077669143677e-03</internalNodes>
      <leafValues>
        -2.3697510361671448e-01 7.3518478870391846e-01</leafValues></_>
    <_>
      <internalNodes>
        0 -1 88203 1.8662472721189260e-03</internalNodes>
      <leafValues>
        2.6323518157005310e-01 -8.0478429794311523e-01</leafValues></_></weakClassifiers></stage5>
</opencv_storage>
