<?xml version="1.0"?>
<opencv_storage>
<stage10>
  <maxWeakCount>6</maxWeakCount>
  <stageThreshold>-9.6759223937988281e-01</stageThreshold>
  <weakClassifiers>
    <_>
      <internalNodes>
        0 -1 216228 -7.1526976535096765e-04</internalNodes>
      <leafValues>
        4.5394736528396606e-01 -5.2751904726028442e-01</leafValues></_>
    <_>
      <internalNodes>
        0 -1 74613 -5.9657682868419215e-05</internalNodes>
      <leafValues>
        2.5883364677429199e-01 -7.2996228933334351e-01</leafValues></_>
    <_>
      <internalNodes>
        0 -1 126801 -5.9925839304924011e-03</internalNodes>
      <leafValues>
        3.2928732037544250e-01 -5.1178747415542603e-01</leafValues></_>
    <_>
      <internalNodes>
        0 -1 39275 -4.1509494185447693e-02</internalNodes>
      <leafValues>
        -9.1740131378173828e-01 2.0631355047225952e-01</leafValues></_>
    <_>
      <internalNodes>
        0 -1 158187 7.9271979629993439e-03</internalNodes>
      <leafValues>
        1.5077514946460724e-01 -8.7775355577468872e-01</leafValues></_>
    <_>
      <internalNodes>
        0 -1 71255 3.3955953549593687e-03</internalNodes>
      <leafValues>
        -2.6156798005104065e-01 7.1090972423553467e-01</leafValues></_></weakClassifiers></stage10>
</opencv_storage>
